// Escalation Gate model weights (737 params, 2948 bytes)
// Auto-generated from export_escalation_gate.py

#ifndef ESCALATION_GATE_WEIGHTS_H
#define ESCALATION_GATE_WEIGHTS_H

#include <stdint.h>

// 0.weight: shape=[32, 5], offset=0
static const float 0_weight[160] = {
    -0.27060896f, 0.37542960f, -0.41227567f, 0.19483975f, -0.07254491f,
    -0.16088313f, 0.32888362f, -0.19655660f, -0.14932333f, -0.41265628f,
    0.30633157f, -0.34486184f, 0.31371376f, -0.44479808f, 0.26708999f,
    -0.32496050f, -0.35330757f, -0.31351554f, -0.22162983f, -0.17131506f,
    -0.14927413f, 0.11051703f, 0.41730401f, -0.41838145f, 0.29739168f,
    0.18428524f, -0.00638262f, -0.00166989f, 0.33319992f, 0.43397754f,
    0.43733039f, -0.09743053f, -0.08747179f, -0.12473343f, -0.11766132f,
    -0.16343021f, 0.31865945f, 0.27921113f, 0.41421440f, -0.04211047f,
    0.36547610f, 0.41042989f, -0.11787201f, 0.08299684f, 0.05468176f,
    0.23720264f, 0.43087602f, -0.26062661f, 0.07183394f, -0.30583754f,
    0.26992911f, 0.11083531f, 0.22566479f, -0.09229914f, 0.12813313f,
    0.34668541f, 0.01313469f, -0.34394065f, 0.00895418f, 0.09348427f,
    0.14242022f, 0.11487108f, 0.34660405f, -0.30697405f, -0.38249552f,
    -0.07101789f, -0.44553897f, -0.14262366f, -0.14100553f, 0.42164877f,
    -0.22081672f, 0.28307554f, -0.32142097f, 0.30542380f, 0.13511536f,
    0.33691379f, 0.28195807f, -0.10548646f, -0.05813073f, 0.01626534f,
    0.04199270f, 0.36728752f, -0.10657578f, 0.27402785f, -0.06102013f,
    -0.10319649f, -0.09530780f, 0.29743898f, 0.11073380f, 0.12633246f,
    -0.05300878f, 0.04633896f, -0.44451764f, 0.28760979f, -0.25468209f,
    0.41215736f, 0.03708890f, 0.44308564f, 0.14013751f, 0.42191070f,
    0.09422280f, 0.31834054f, 0.25036800f, -0.11389562f, -0.30217078f,
    -0.20535953f, 0.06143986f, 0.27077150f, -0.40657678f, -0.04837409f,
    -0.15384254f, -0.25866494f, 0.03783362f, 0.26542032f, 0.08794989f,
    -0.16974476f, -0.38628185f, -0.26352373f, 0.26283202f, 0.38264561f,
    -0.09381235f, 0.36538902f, 0.22898182f, 0.21595487f, 0.05197863f,
    0.34876677f, 0.09760027f, 0.10622445f, -0.03081760f, -0.27511707f,
    -0.18603750f, -0.08960299f, 0.08228502f, -0.10866268f, 0.25239971f,
    0.03383335f, 0.14802289f, 0.38552365f, 0.23051283f, 0.16489300f,
    -0.15168308f, -0.17913508f, -0.31208587f, 0.19486618f, -0.20137019f,
    0.43139303f, -0.05056836f, -0.25326508f, -0.36785182f, -0.32998559f,
    0.32191917f, 0.37372363f, -0.29281998f, -0.24668935f, 0.37149352f,
    -0.36611265f, -0.37602863f, 0.02363082f, 0.42077222f, -0.41131568f
};

// 0.bias: shape=[32], offset=160
static const float 0_bias[32] = {
    -0.04972892f,
    -0.14240967f,
    -0.36477631f,
    0.42065337f,
    -0.25921321f,
    0.07855536f,
    -0.18137014f,
    0.26135570f,
    -0.29729268f,
    0.23729017f,
    -0.35426542f,
    0.28012863f,
    -0.24965233f,
    0.16865602f,
    -0.28418791f,
    0.06475981f,
    -0.26969147f,
    -0.21353450f,
    0.27965003f,
    -0.26789773f,
    -0.07771762f,
    0.02248967f,
    -0.37343559f,
    0.44049975f,
    0.19224909f,
    0.39665583f,
    0.36809620f,
    -0.43344319f,
    -0.12976810f,
    -0.16598360f,
    -0.38424826f,
    0.44291046f
};

// 2.weight: shape=[16, 32], offset=192
static const float 2_weight[512] = {
    -0.17005265f, 0.16273756f, -0.12130892f, 0.10374261f, 0.04690573f, 0.04947471f, 0.16621324f, -0.16212787f, -0.09565328f, 0.13735192f, 0.02642827f, -0.10909437f, -0.13959466f, 0.05399260f, -0.12104689f, -0.17081954f, 0.16142665f, 0.01808527f, 0.15981680f, -0.00655112f, -0.11545170f, 0.15707871f, -0.11324839f, 0.08102782f, -0.05689117f, -0.05633480f, 0.13350631f, -0.16879377f, 0.10234460f, 0.15435259f, -0.10980798f, -0.08342920f,
    -0.13745448f, -0.11782166f, -0.11346208f, -0.00074927f, -0.07463412f, 0.10072640f, 0.07473709f, 0.00746770f, 0.01913353f, -0.02038169f, 0.16303417f, 0.10939781f, -0.00419865f, -0.14377950f, 0.06910367f, -0.08650851f, -0.05185226f, -0.14597459f, 0.13104574f, -0.05829143f, -0.02558984f, 0.09771445f, -0.12313682f, -0.06291460f, -0.06332526f, -0.10837537f, -0.10127485f, 0.11325526f, 0.13706408f, 0.02680013f, -0.16392386f, -0.07636648f,
    0.01411713f, 0.12155524f, 0.13200669f, 0.15321995f, 0.13726088f, 0.02042354f, -0.05093708f, 0.11435251f, 0.04639344f, 0.04350844f, 0.15657276f, -0.10753810f, 0.17631759f, -0.04286400f, -0.01720306f, -0.08558311f, -0.14432362f, 0.15529794f, -0.08714135f, -0.01208321f, 0.10735154f, 0.00211739f, 0.14714752f, -0.14441293f, 0.05004428f, 0.13020778f, -0.03201690f, -0.07278265f, 0.13122927f, 0.02440477f, 0.03227761f, -0.07412440f,
    -0.03097926f, 0.14659622f, -0.08922279f, -0.14589757f, 0.05046278f, 0.00884140f, -0.05744518f, -0.14822043f, 0.15023376f, 0.17087372f, -0.04719469f, 0.10392664f, 0.02109734f, 0.11509084f, -0.09693290f, -0.15556531f, 0.12100729f, -0.12302296f, -0.05299416f, 0.15283920f, -0.07001759f, 0.06752357f, 0.14299291f, 0.03115191f, 0.11856408f, 0.10491841f, 0.08118269f, 0.03192280f, -0.00875651f, -0.10650007f, -0.01195337f, 0.03944477f,
    -0.02277574f, 0.11550291f, -0.00383920f, -0.10394656f, 0.00415399f, -0.12345623f, 0.15179794f, 0.08753639f, 0.08707758f, 0.17403618f, 0.13230036f, 0.00802078f, 0.05623854f, -0.16409759f, 0.00354179f, -0.13264325f, 0.01026111f, -0.17007041f, -0.11016326f, -0.04456348f, 0.01268045f, -0.08344389f, -0.06401581f, -0.09673804f, -0.11170156f, 0.00443202f, 0.15491371f, -0.09722285f, 0.14807184f, -0.07574147f, -0.17588271f, -0.13696826f,
    -0.06930935f, -0.01830699f, -0.02837033f, -0.08698791f, -0.04912900f, 0.11121995f, -0.02294249f, 0.06291085f, 0.13367376f, 0.08758868f, -0.06443930f, 0.12933257f, 0.04902618f, -0.07180588f, 0.00043251f, -0.01942565f, 0.13158238f, -0.04767989f, 0.09538376f, 0.11778326f, -0.17601196f, 0.05175435f, -0.16204947f, -0.17212425f, 0.02304954f, 0.05416749f, 0.17184636f, 0.06561596f, -0.02396518f, 0.03088205f, 0.16246331f, 0.15379800f,
    -0.06721691f, -0.07518637f, 0.03117057f, 0.06915400f, -0.10956699f, 0.11392807f, 0.10004309f, 0.07276449f, 0.04254086f, 0.10140327f, -0.14928903f, 0.13415121f, 0.16816786f, 0.00037043f, -0.02498448f, -0.06125962f, 0.11588742f, -0.02159446f, 0.05289844f, 0.16875388f, -0.01367596f, 0.00662053f, -0.11768879f, 0.05984239f, -0.10603173f, 0.13587001f, -0.14297932f, -0.13249257f, -0.13935788f, 0.12497900f, 0.12263013f, 0.09951929f,
    -0.10445991f, 0.11344701f, -0.07668037f, 0.02885405f, 0.11739269f, -0.04879370f, -0.00004200f, 0.05173471f, 0.15744123f, -0.13811459f, 0.14121285f, 0.12521423f, -0.09290210f, -0.05531599f, -0.07167459f, -0.16387527f, -0.09627044f, -0.15420292f, -0.02026366f, 0.10706229f, 0.07838517f, -0.13621992f, 0.03968627f, -0.09207025f, -0.15833621f, -0.16455032f, -0.16007443f, 0.05468815f, -0.16955224f, 0.14386542f, -0.04647137f, 0.11645795f,
    0.15784119f, 0.11686853f, -0.08069187f, 0.10604473f, -0.06880024f, 0.14033817f, -0.16577400f, 0.01786270f, 0.16630092f, -0.00328391f, -0.14114998f, 0.03980654f, 0.10306424f, -0.07548170f, -0.10752205f, 0.06453975f, -0.06548579f, -0.07877100f, -0.17438573f, -0.01836344f, 0.15308723f, 0.09512598f, -0.12183851f, 0.17074090f, -0.03884801f, -0.03893279f, -0.12093846f, 0.11436009f, -0.17135671f, 0.07065451f, -0.07221667f, 0.10585310f,
    0.11956625f, 0.17475714f, 0.03693480f, -0.08464722f, -0.10178388f, -0.02438391f, 0.03362964f, 0.04242297f, 0.06013953f, 0.10340600f, 0.03955867f, 0.10649617f, -0.12722869f, -0.07199078f, 0.01017688f, -0.12169856f, 0.16658099f, 0.12348849f, -0.10041899f, 0.02984041f, -0.15673952f, -0.15843293f, 0.02304756f, -0.07171185f, -0.13487831f, -0.17244656f, -0.15440635f, -0.09712642f, -0.11001128f, 0.17591873f, 0.02493266f, 0.14061767f,
    -0.16970785f, -0.14737499f, -0.06532917f, 0.06671846f, -0.08249655f, -0.07421996f, -0.09021672f, -0.09614385f, 0.02911871f, -0.07335349f, -0.08567046f, 0.16786774f, 0.04155941f, -0.11032043f, 0.11709686f, 0.00788989f, 0.08509537f, -0.15342222f, -0.06489150f, -0.14028840f, 0.12757719f, -0.15228628f, -0.04638467f, 0.17415521f, -0.15928566f, -0.13265166f, -0.04215751f, -0.00922997f, -0.08421273f, -0.14792225f, -0.07955955f, -0.09401539f,
    0.08191750f, 0.00595944f, -0.00342256f, -0.08546457f, 0.05177888f, 0.12679406f, -0.05954903f, 0.14961123f, -0.01964671f, -0.01422393f, 0.01340373f, -0.08487309f, -0.01488995f, -0.10666741f, -0.16696590f, 0.12236954f, 0.10121526f, -0.01067310f, 0.03911678f, 0.01614132f, 0.08602893f, -0.02601162f, -0.05263591f, -0.02290232f, 0.01820573f, -0.11049612f, 0.00376491f, 0.14469780f, -0.07432723f, -0.01401444f, -0.03188793f, 0.05641052f,
    0.07158623f, -0.16086325f, 0.14437300f, -0.08135241f, -0.11284284f, 0.05883917f, 0.02990633f, -0.16423516f, -0.01775632f, 0.09268336f, 0.12709561f, 0.10594659f, 0.08895782f, 0.09833155f, -0.01398989f, 0.02454725f, 0.05030884f, 0.10780708f, -0.08452491f, 0.07021629f, 0.06943044f, -0.14180438f, -0.14608449f, -0.05430769f, -0.09309086f, 0.08245211f, 0.09356897f, 0.14972448f, 0.12208178f, -0.12875091f, 0.08685806f, -0.11806519f,
    -0.06059695f, 0.16560316f, 0.04624670f, 0.16680734f, 0.12499200f, -0.00708975f, -0.13690083f, 0.12588798f, -0.07401368f, -0.17008141f, -0.12440076f, -0.14707838f, -0.15286264f, -0.12831499f, -0.00599002f, 0.11950475f, 0.00576221f, 0.08277942f, -0.02292757f, 0.10134389f, -0.16041929f, -0.04937341f, 0.05239363f, 0.15298082f, -0.00589900f, -0.10901500f, 0.05029466f, -0.14860189f, 0.14233962f, -0.15853636f, -0.08669023f, 0.00129755f,
    0.16425240f, 0.02967372f, 0.16038661f, 0.13702865f, -0.16052347f, -0.03223005f, 0.04258225f, 0.00028641f, 0.14972693f, 0.10635753f, 0.14555551f, -0.04752970f, 0.01701744f, -0.02459032f, -0.10210460f, -0.10740504f, -0.15860122f, 0.05316953f, -0.00074537f, 0.10527368f, 0.15649527f, -0.07549666f, 0.11203947f, -0.13084388f, -0.15233304f, 0.16981319f, 0.17227082f, -0.11106394f, -0.00458423f, 0.01121372f, -0.17179422f, 0.11648481f,
    0.01285593f, 0.00727925f, -0.02852343f, -0.03556008f, -0.15998191f, -0.11818785f, 0.17348488f, 0.16431943f, 0.11802015f, -0.10171286f, -0.03488450f, 0.04231076f, -0.02362257f, 0.15177432f, 0.02738095f, -0.03310323f, -0.01453453f, 0.01232414f, 0.03262351f, 0.17642970f, -0.07035668f, -0.00190801f, -0.14380334f, -0.13928209f, 0.11611611f, 0.06267470f, -0.11252096f, -0.09342494f, -0.15638120f, 0.10062374f, 0.01506284f, -0.01482151f
};

// 2.bias: shape=[16], offset=704
static const float 2_bias[16] = {
    0.13237795f,
    -0.04065624f,
    0.09776635f,
    -0.02137085f,
    -0.08141559f,
    0.03992270f,
    0.11745285f,
    -0.14252588f,
    0.06660315f,
    0.04582483f,
    -0.07143109f,
    -0.12419970f,
    -0.13387084f,
    -0.14398050f,
    -0.14716010f,
    0.09956596f
};

// 4.weight: shape=[1, 16], offset=720
static const float 4_weight[16] = {
    0.05024654f, 0.12178409f, 0.08269718f, 0.14242569f, 0.22564200f, -0.09358722f, -0.23647088f, -0.04741201f, -0.13232875f, 0.04484510f, -0.10074896f, -0.07286263f, 0.19946355f, -0.07653230f, -0.17692685f, -0.23949599f
};

// 4.bias: shape=[1], offset=736
static const float 4_bias[1] = {
    0.21517363f
};

// Total: 737 parameters, 2948 bytes
static const uint32_t ESCALATION_GATE_PARAM_COUNT = 737;
static const uint32_t ESCALATION_GATE_SIZE_BYTES = 2948;

#endif // ESCALATION_GATE_WEIGHTS_H
